<?xml version="1.0"?>
<opencv_storage>
<cascade>
  <stageType>BOOST</stageType>
  <featureType>HAAR</featureType>
  <height>20</height>
  <width>20</width>
  <stageParams>
    <boostType>GAB</boostType>
    <minHitRate>9.9900001287460327e-01</minHitRate>
    <maxFalseAlarm>5.0000000745058060e-02</maxFalseAlarm>
    <weightTrimRate>9.4999999999999996e-01</weightTrimRate>
    <maxDepth>1</maxDepth>
    <maxWeakCount>100</maxWeakCount></stageParams>
  <featureParams>
    <maxCatCount>0</maxCatCount>
    <featSize>1</featSize>
    <mode>ALL</mode></featureParams>
  <stageNum>3</stageNum>
  <stages>
    <!-- stage 0 -->
    <_>
      <maxWeakCount>7</maxWeakCount>
      <stageThreshold>2.7369499206542969e-01</stageThreshold>
      <weakClassifiers>
        <_>
          <internalNodes>
            0 -1 10 1.5258471481502056e-02</internalNodes>
          <leafValues>
            -6.7567569017410278e-01 8.4269660711288452e-01</leafValues></_>
        <_>
          <internalNodes>
            0 -1 15 1.6247833147644997e-02</internalNodes>
          <leafValues>
            -8.4429514408111572e-01 6.7758142948150635e-01</leafValues></_>
        <_>
          <internalNodes>
            0 -1 1 -1.1802509427070618e-02</internalNodes>
          <leafValues>
            5.2257782220840454e-01 -9.0300703048706055e-01</leafValues></_>
        <_>
          <internalNodes>
            0 -1 8 -1.1970978230237961e-02</internalNodes>
          <leafValues>
            4.6899843215942383e-01 -9.0111142396926880e-01</leafValues></_>
        <_>
          <internalNodes>
            0 -1 7 4.6052671968936920e-03</internalNodes>
          <leafValues>
            -5.9763628244400024e-01 8.3351981639862061e-01</leafValues></_>
        <_>
          <internalNodes>
            0 -1 2 1.9572416320443153e-02</internalNodes>
          <leafValues>
            -9.7952246665954590e-01 5.4126763343811035e-01</leafValues></_>
        <_>
          <internalNodes>
            0 -1 17 -4.8538021743297577e-02</internalNodes>
          <leafValues>
            9.8793542385101318e-01 -5.7269787788391113e-01</leafValues></_></weakClassifiers></_>
    <!-- stage 1 -->
    <_>
      <maxWeakCount>7</maxWeakCount>
      <stageThreshold>1.9648497924208641e-02</stageThreshold>
      <weakClassifiers>
        <_>
          <internalNodes>
            0 -1 12 4.9890950322151184e-03</internalNodes>
          <leafValues>
            -5.4575163125991821e-01 8.6082476377487183e-01</leafValues></_>
        <_>
          <internalNodes>
            0 -1 5 6.4798658713698387e-03</internalNodes>
          <leafValues>
            -5.0808870792388916e-01 9.4084471464157104e-01</leafValues></_>
        <_>
          <internalNodes>
            0 -1 4 7.1501708589494228e-05</internalNodes>
          <leafValues>
            5.4360729455947876e-01 -9.4535118341445923e-01</leafValues></_>
        <_>
          <internalNodes>
            0 -1 16 -6.2693189829587936e-03</internalNodes>
          <leafValues>
            8.8928139209747314e-01 -5.8707135915756226e-01</leafValues></_>
        <_>
          <internalNodes>
            0 -1 3 3.6153032851871103e-05</internalNodes>
          <leafValues>
            4.7659850120544434e-01 -1.</leafValues></_>
        <_>
          <internalNodes>
            0 -1 3 -3.7873760447837412e-05</internalNodes>
          <leafValues>
            -1. 4.0414825081825256e-01</leafValues></_>
        <_>
          <internalNodes>
            0 -1 0 2.2448904812335968e-02</internalNodes>
          <leafValues>
            -9.6901863813400269e-01 3.1858825683593750e-01</leafValues></_></weakClassifiers></_>
    <!-- stage 2 -->
    <_>
      <maxWeakCount>6</maxWeakCount>
      <stageThreshold>-4.2898362874984741e-01</stageThreshold>
      <weakClassifiers>
        <_>
          <internalNodes>
            0 -1 4 -5.1697832532227039e-05</internalNodes>
          <leafValues>
            -8.8365650177001953e-01 4.9921754002571106e-01</leafValues></_>
        <_>
          <internalNodes>
            0 -1 6 -6.3713956624269485e-03</internalNodes>
          <leafValues>
            9.2178744077682495e-01 -5.3904974460601807e-01</leafValues></_>
        <_>
          <internalNodes>
            0 -1 13 3.2165108714252710e-03</internalNodes>
          <leafValues>
            -4.9840608239173889e-01 7.9230487346649170e-01</leafValues></_>
        <_>
          <internalNodes>
            0 -1 14 -4.8637725412845612e-03</internalNodes>
          <leafValues>
            9.3843168020248413e-01 -4.4965890049934387e-01</leafValues></_>
        <_>
          <internalNodes>
            0 -1 9 5.8599612675607204e-03</internalNodes>
          <leafValues>
            -3.6618828773498535e-01 9.9112850427627563e-01</leafValues></_>
        <_>
          <internalNodes>
            0 -1 11 -6.5077478066086769e-03</internalNodes>
          <leafValues>
            9.8954743146896362e-01 -3.4005188941955566e-01</leafValues></_></weakClassifiers></_></stages>
  <features>
    <_>
      <rects>
        <_>
          0 0 20 6 -1.</_>
        <_>
          5 0 10 6 2.</_></rects>
      <tilted>0</tilted></_>
    <_>
      <rects>
        <_>
          0 14 7 6 -1.</_>
        <_>
          0 17 7 3 2.</_></rects>
      <tilted>0</tilted></_>
    <_>
      <rects>
        <_>
          0 15 20 5 -1.</_>
        <_>
          5 15 10 5 2.</_></rects>
      <tilted>0</tilted></_>
    <_>
      <rects>
        <_>
          0 19 2 1 -1.</_>
        <_>
          1 19 1 1 2.</_></rects>
      <tilted>0</tilted></_>
    <_>
      <rects>
        <_>
          1 17 2 1 -1.</_>
        <_>
          1 17 1 1 2.</_></rects>
      <tilted>1</tilted></_>
    <_>
      <rects>
        <_>
          6 9 1 3 -1.</_>
        <_>
          6 10 1 1 3.</_></rects>
      <tilted>0</tilted></_>
    <_>
      <rects>
        <_>
          6 13 3 1 -1.</_>
        <_>
          7 13 1 1 3.</_></rects>
      <tilted>0</tilted></_>
    <_>
      <rects>
        <_>
          7 6 3 1 -1.</_>
        <_>
          8 6 1 1 3.</_></rects>
      <tilted>0</tilted></_>
    <_>
      <rects>
        <_>
          7 7 6 6 -1.</_>
        <_>
          9 9 2 2 9.</_></rects>
      <tilted>0</tilted></_>
    <_>
      <rects>
        <_>
          8 7 2 1 -1.</_>
        <_>
          9 7 1 1 2.</_></rects>
      <tilted>0</tilted></_>
    <_>
      <rects>
        <_>
          9 7 3 3 -1.</_>
        <_>
          10 8 1 1 9.</_></rects>
      <tilted>0</tilted></_>
    <_>
      <rects>
        <_>
          9 13 2 1 -1.</_>
        <_>
          10 13 1 1 2.</_></rects>
      <tilted>0</tilted></_>
    <_>
      <rects>
        <_>
          10 6 3 1 -1.</_>
        <_>
          11 6 1 1 3.</_></rects>
      <tilted>0</tilted></_>
    <_>
      <rects>
        <_>
          10 10 1 2 -1.</_>
        <_>
          10 11 1 1 2.</_></rects>
      <tilted>0</tilted></_>
    <_>
      <rects>
        <_>
          12 12 2 2 -1.</_>
        <_>
          12 12 1 1 2.</_>
        <_>
          13 13 1 1 2.</_></rects>
      <tilted>0</tilted></_>
    <_>
      <rects>
        <_>
          13 0 7 6 -1.</_>
        <_>
          13 3 7 3 2.</_></rects>
      <tilted>0</tilted></_>
    <_>
      <rects>
        <_>
          14 10 1 3 -1.</_>
        <_>
          14 11 1 1 3.</_></rects>
      <tilted>0</tilted></_>
    <_>
      <rects>
        <_>
          15 2 3 13 -1.</_>
        <_>
          16 3 1 13 3.</_></rects>
      <tilted>1</tilted></_></features></cascade>
</opencv_storage>
